Language model created by QuickLM on Fri Jan 11 16:20:56 EST 2019
Copyright (c) 1996-2010 Carnegie Mellon University and Alexander I. Rudnicky

The model is in standard ARPA format, designed by Doug Paul while he was at MITRE.

The code that was used to produce this language model is available in Open Source.
Please visit http://www.speech.cs.cmu.edu/tools/ for more information

The (fixed) discount mass is 0.5. The backoffs are computed using the ratio method.
This model based on a corpus of 5 sentences and 8 words

\data\
ngram 1=8
ngram 2=11
ngram 3=10

\1-grams:
-0.9243 </s> -0.3010
-0.9243 <s> -0.2460
-1.3222 BROWSER -0.2460
-1.3222 CLOSE -0.2576
-1.3222 FILE -0.2798
-1.3222 MANAGER -0.2460
-1.3222 OPEN -0.2576
-1.6232 TERMINAL -0.2460

\2-grams:
-0.6990 <s> CLOSE 0.0000
-0.6990 <s> OPEN 0.0000
-1.0000 <s> TERMINAL 0.0000
-0.3010 BROWSER </s> -0.3010
-0.6021 CLOSE BROWSER 0.0000
-0.6021 CLOSE FILE 0.0000
-0.3010 FILE MANAGER 0.0000
-0.3010 MANAGER </s> -0.3010
-0.6021 OPEN BROWSER 0.0000
-0.6021 OPEN FILE 0.0000
-0.3010 TERMINAL </s> -0.3010

\3-grams:
-0.6021 <s> CLOSE BROWSER
-0.6021 <s> CLOSE FILE
-0.6021 <s> OPEN BROWSER
-0.6021 <s> OPEN FILE
-0.3010 <s> TERMINAL </s>
-0.3010 CLOSE BROWSER </s>
-0.3010 CLOSE FILE MANAGER
-0.3010 FILE MANAGER </s>
-0.3010 OPEN BROWSER </s>
-0.3010 OPEN FILE MANAGER

\end\